-0.2988308,0.23577674,0.22198053,0.14180943,0.12417989,-0.06902427,-0.020321894,0.039168656,-0.3099909,0.06584843,0.20835584,0.15350787,-0.115392,0.18598244,-0.1325289,0.1329986,-0.13081816,-0.018237434,0.13915093,-0.14097376,-0.050682362,-0.18984732,-0.18756023,0.32967034,0.31094736,-0.1279803,0.10878486,-0.10047306,0.14582697,-0.07508646,-0.2706687,0.19760267,0.055469513,-0.1373304,-0.032052103,-0.16022548,0.2167698,-0.09960346,0.13862234,-0.037897944,0.08782969,-0.12664221,0.1714616,-0.03686996,-0.2621913,-0.22514397,-0.24989171,-0.061218794,0.0680181,-0.038011286,0.18234338,-0.1692116,0.10462821,0.18174915,0.16709666,-0.045579728,-0.30674025,-0.24393368,-0.017589943,-0.30562615,-0.15191533,0.1182348,-0.2883524,0.046069037,0.26323435,-0.09427787,0.036346048,-0.07229073,-0.18163472,-0.22754252,0.2648133,0.03402391,-0.23840547,0.20665814,0.073304154,-0.13162288,0.108662255,0.1748238,0.008920919,-0.14371733,-0.23482741,-0.17068042,-0.27143636,-0.016015762,-0.37141383,0.16773328,-0.12212895,-0.16721813,-0.14177008,-0.072439864,0.03926992,0.02439645,0.100176096,0.2214685,0.23235193,0.2629677,-0.14621724,0.21926111,-0.061731268,0.38858223,0.18788369,0.10660781,0.068337105,-0.013366197,0.26901945,-0.28589508,-0.19096501,0.08203122,-0.3448891,0.15805449,0.19691552,0.121383175,0.17951417,0.011997492,0.25438184,-0.26811835,0.20899111,0.24853231,0.22115971,-0.054903135,0.15184025,0.12575209,-0.11258291,0.05098653,0.22712217,-0.05094032,0.3599852,0.18042092,0.109922476,0.17760216,-0.1300162,-0.20992981,0.11928582,-0.39464578,-0.20993006,-0.14241637,-0.16974925,0.14874977,0.22344255,0.13579619,-0.08431697,0.08561054,-0.17229308,-0.12844911,-0.26286453,-0.12048701,0.23964885,-0.017905893,0.23039618,0.16393991,0.0032318372,-0.17020857,0.29752436,0.1551043,-0.097528316,-0.30199853,-0.13293138,-0.25838506,-0.05611331,0.11086472,0.32017538,0.12402472,-0.25001612,0.08707904,0.10943052,0.06594496,0.21030653,0.020893604,-0.17676926,-0.22152795,0.119590715,0.22044718,-0.13545415,0.27280796,-0.030708198,-0.17581217,-0.029843098,0.046589844,-0.051654153,-0.030615872,0.083349645,-0.16232683,0.26749006,-0.0016532657,-0.33191875,-0.021262875,0.085134014,-0.2625437,-0.24649848,0.014006457,-0.16666041,0.21123156,0.043435827,0.12117727,0.08488825,0.13890542,0.12867787,-0.08851188,0.2951013,0.20005703,-0.29830498,0.20775051,0.32799098,-0.18245931,0.032879546,-0.40588614,0.17228825,-0.15772769,-0.18211575,-0.14813186,-0.07205946,-0.33797196,-0.18678226,0.06920453,0.12926733,-0.01873963,-0.026503056,0.008703342,-0.18796423,0.12201509,-0.13308145,-0.07136738,0.10835004,0.094078764,0.1765327,-0.25997692,-0.0859018,0.01588513,0.14215474,0.02668265,-0.32814264,-0.12886027,0.19490784,0.12471823,-0.03560221,-0.06714976,-0.27064356,-0.10461138,-0.09228766,-0.30401242,-0.0005028027,0.21083468,0.22642316,-0.10026795,-0.25350535,0.047411803,-0.18109345,0.1621245,0.18926108,-0.2236,-0.2354542,0.38144755,0.6003302,0.16000932,0.2679587,-0.13382299,-0.07589643,-0.045777768,0.04588765,-0.058048867,0.19060944,0.10003972,-0.2590284,0.3062987,-0.040890157,-0.12806806,0.24825582,0.27664867,-0.23099257,-0.021034628,0.14910108,0.0791699,-0.113964014,0.032272954,0.43000314,-0.28304178,0.050144877,0.37444907,0.18487653,-0.098309904,0.01796581,-0.19787464,-0.08465865,-0.23943177,0.12368692,0.11437489,-0.09426979,-0.36552432,-0.18432988,-0.1810003,-0.4427929,-0.24567747,0.14552088,-0.056499712,-0.13748063,0.20182554,0.19680008,0.12838726,0.24893323,0.09851973,-0.01977927,-0.17254041,-0.24852838,0.1358099,0.05450566,0.1639848,0.05389547,-0.26108727,0.11102834,-0.07388438,-0.30129367,-0.027266584,0.30869752,0.23775361,0.112374164,0.25710845,-0.2370497,-0.30681312,0.32521495,0.001028508,-0.3012595,-0.10088463,-0.1220618,0.07488386,-0.3204173,0.31047,-0.15187123,0.18771729,-0.062012486,-0.03700941,-0.03729012,0.21142301,0.14348903,0.20916429,0.11435174,-0.24602157,-0.018971955,-0.078355886,-0.24470259,0.11059442,0.24456425,0.056804985,0.16696298,0.013423306,0.09226194,-0.14602038,0.19211033,-0.1505927,-0.037451923,0.12021396,0.20050184,-0.08049294,-0.23433174,-0.21159191,0.007866139,-0.11962692,-0.03298471,-0.2426693,0.078834884,-0.09761869,-0.2093194,-0.02573633,0.11425197,-0.16673936,0.019168131,0.2545412,0.24844071,-0.19945733,0.3466392,0.14155647,-0.3849014,-0.14835568,-0.04261642,-0.37701073,-0.04941099,0.0035456894,-0.06569735,0.32060403,0.06489715,0.22768237,-0.19600429,0.0545728,0.20353252,-0.049780264,-0.37428352,0.31124246,0.06261869,-0.28957266,0.18481088,-0.026216682,-0.41172308,-0.06231031,0.19729355,-0.042544834,-0.06293295,0.34296167,-0.11943771,0.19954146,0.29810536,0.08096389,-0.23178007,0.22136721,0.6353751,-0.14948596,0.6253027,-0.15838142,-0.07892994,-0.048651844,-0.65394336,-0.47792116,0.2834919,0.0035271177,-0.4636599,-0.045796618,0.3446594,-0.6147895,0.16468045,-0.19980593,-0.1364591,-0.119329005,0.016514761,-0.11839841,0.233705,0.24547425,0.33239442,-0.44029325,0.2923678,0.89955705,-0.17469293,0.19294642,-0.30669686,-0.12268836,-0.19307443,-0.5545876,0.015000921,0.17064841,-0.17171957,-0.24363205,0.075223096,0.03968814,-0.18892048,-0.09281707,-0.06531385,-0.024519525,-0.26687723,0.16334133,0.13535362,-0.15732086,0.04598819,0.3848923,-0.25959614,0.2588434,0.4076238,-0.27836716,0.40077403,-0.32542893,-0.010525574,0.0886718,-0.343137,-0.17307684,0.36355785,-0.1359229,-0.31371024,-0.20974077,-0.115134545,-0.650771,-0.034841552,-0.14090185,0.05913969,0.11450258,0.22835661,-0.08991125,0.13575965,0.5055312,0.020221127,0.08994598,0.07165249,-0.078638405,0.024173671,-0.2601042,0.016513035,-0.21283154,0.016446978,-0.18994223,-0.16389675,0.066579215,0.28162983,0.3147056,-0.12620886,-0.19463482,0.05799259,-0.06843577,-0.14357981,-0.0767738,-0.20855671,0.14131333,0.01330781,-0.22827274,-0.060500626,0.052596524,0.10928553,0.023300042,-0.13375863,-0.3195257,-0.18486759,-0.19801745,-0.09498142,-0.17729408,0.0066710208,0.25628367,-0.21868563,0.1376507,-0.063779175,-0.11921011,-0.07054125,-0.11373396,0.07326287,0.20366643,0.0019640126,0.08699387,-0.22999345,0.17557192,-0.2658832,-0.005076824,-0.08138254,0.026431605,-0.34009445,-0.3301029,-0.00015433012,-0.4224238,-0.119254395,-0.18114375,0.20483533,0.005985108,-0.20940578,-0.2113472,-0.11559698,0.11451192,-0.23241934,0.018800076,0.1243777,0.16496137,-0.0056161666,0.032917846,0.15645385,-0.21142745,0.19801164,0.04536525,0.059069086,0.092523426,-0.030339243,-0.07356756,-0.19140683,0.010342835,-0.087036856,-0.21709315,-0.19922733,-0.14408259,0.2028635,-0.21874446,0.16619036,0.017520119,0.0012784561,0.1076809,-0.03327212,0.04095832,-0.13100952,-0.1688462,-0.0957669,0.046646327,-0.14578442,-0.056736335,-0.074451424,0.16234522,0.15243152,-0.049754657,0.35233274,0.46932644,-0.30588973,0.5060183,-0.18570061,-0.109956935,-0.05540642,-0.4517311,-0.44555035,0.28337586,-0.19033062,-0.5261264,-0.009760213,0.19693911,-0.5700229,0.26352856,0.06898724,-0.16787295,-0.010492176,-0.06312889,-0.20103541,-0.043631192,0.38810208,0.14727297,-0.38636008,0.36143225,0.50010526,0.03798645,0.3311922,-0.33501032,-0.29663688,0.23028311,-0.36762756,-0.37797388,0.20910367,-0.28990266,-0.3123433,-0.13879707,0.20231862,-0.5660085,0.19012189,-0.11378392,-0.0044266544,0.052297145,-0.14100766,0.23414764,0.22665587,-0.04522495,0.014812644,-0.06671818,0.18206255,0.17971988,-0.23299097,0.4403654,0.03016904,0.03463865,-0.0076497197,-0.3847801,-0.04150197,0.095526,-0.13968007,-0.3696374,-0.008389267,-0.048860036,-0.32101992,-0.16549703,0.15984933,-0.10781358,0.2735825,0.14402445,-0.23654205,0.085446805,0.31697312,-0.043757718,-0.33981842,0.037195448,0.25945157,-0.102822624,0.24629374,-0.4468597,-0.30263734,-0.18553576,-0.2511771,-0.14052309,0.50986,-0.19619109,-0.18524475,0.23575458,0.033109326,-0.4643605,-0.15594628,-0.08681113,0.07424818,0.19241583,0.0124685215,-0.025024444,0.28962305,0.29880512,0.15375741,-0.1916432,0.4586253,0.5410723,-0.31521648,0.42890567,0.08256116,-0.24837442,0.098320305,-0.0449271,-0.27222538,-0.015389129,-0.20856012,-0.004253364,0.19571549,0.26370862,-0.50008214,0.066497386,-0.10658088,-0.21687108,0.009804606,-0.040145516,-0.21912178,0.28001982,0.39290226,-0.0022820777,0.08519632,0.3275528,0.3078845,0.07562381,0.22586386,-0.3451019,0.020003632,-0.09688875,-0.30697045,-0.08048962,-0.12489987,0.09659648,-0.07069398,0.028242981,0.08344431,-0.04003522,-0.10972819,-0.28482744,0.2455794,-0.20058008,0.17769486,-0.0367164,-0.13803892,0.2970146,-0.08837518,-0.069718845,0.06639328,-0.07452228,-0.24521323,0.010528961,0.012962064,-0.19008029,-0.23498169,0.12397311,0.21752007,-0.2672494,-0.2538533,-0.16997585,0.023905968,0.1411369,-0.176035,-0.21100236,0.18498008,0.1905104,-0.2424735,0.27459097,-0.19101365,0.04194103,-0.008296637,-0.11652007,-0.1333401,0.18632916,0.15722014,-0.047785092,0.14463858,-0.23651576,-0.12439675,-0.1335174,-0.37672338,0.07607053,0.21609269,0.10999937,-0.269783,0.10613626,0.3185,-0.030047787,0.044163316,0.24386765,-0.2417572,-0.15289558,0.31542528,-0.2255296,0.14356425,-0.03509497,0.4326245,-0.24691197,0.46853128,0.5323943,0.10526973,0.19412865,0.058370803,-0.23028678,-0.26095986,-0.45167667,-0.3130355,0.41500184,-0.24915428,-0.054713376,0.20009324,0.056636922,-0.39058816,-0.13287598,-0.14376086,0.102938816,-0.21585193,0.007696755,0.16478315,0.07480922,0.21200095,0.4543682,-0.38634506,0.13042352,0.41944128,0.17438674,0.36964428,0.020856526,0.18812719,-0.19078499,-0.18223205,-0.033731613,0.3002544,-0.062161062,-0.061483696,0.23454712,-0.24767855,-0.11595985,0.1820051,-0.09490735,0.20170878,-0.09741418,-0.05649561,0.02958247,0.197357,0.16998273,0.10344973,0.18305899,-0.11814717,0.028262718,-0.06658022,-0.020222155,-0.15488607,0.15594666,-0.27032334,-0.15096173,-0.18625154,0.0237257,0.017916786,-0.19485159,0.013589728,0.023910746,0.21412826,0.11803657,0.082147144,0.042489138,-0.019775808,0.08130284,-0.0701344,-0.22308548,0.14913566,-0.011096207,-0.09465039,-0.19951212,-0.024992455,0.23501813,0.23118359,0.24940386,-0.028339386,-0.11465189,-0.101077,0.1556949,0.0058153467,0.23769166,0.20603265,0.16221292,0.028323976,-0.050812386,-0.10332553,0.24233286,-0.0068014814,-0.13636172,-0.3005065,-0.26147807,0.15853372,-0.13806301,-0.26782036,0.19490528,-0.024567178,0.21096951,0.21514435,0.09565266,0.028365258,-0.2899016,0.0063798428,0.22407578,-0.07855602,-0.13661955,0.19595048,0.18724664,-0.10608151,-0.14434035,-0.05112203,0.21375299,-0.0053671338,0.084568314,-0.19026822,0.065765895,-0.25481158,-0.15047672,-0.032067638,0.12246266,-0.17786892,0.1885599,-0.07506541,-0.22361028,-0.03351917,-0.09752581,-0.28912625,-0.22257875,0.03374405,-0.14096019,0.10846914,-0.07430675,-0.13252218,-0.05876073,-0.24468893,-0.055758376,0.007123828,0.14081511,-0.07140551,0.067139596,-0.036890216,0.15135598,0.061293207,-0.1256064,0.17454664,-0.104624175,0.19847229,-0.037159637,-0.32734668,-0.05428858,0.059817515,-0.23707838,-0.10912366,0.096884415,0.067748025,-0.10636564,-0.19838381,0.19671501,0.07499297,-0.25364333,-0.06380527,-0.26761055,0.15801959,0.18528236,0.25945595,-0.16595939,-0.15066966,0.25072932,-0.14477862,-0.24554424,-0.05380653,-0.059274353,-0.1338938,0.05051111,-0.11044622,0.13056442,-0.29044548,0.15806931,-0.07691056,0.10273543,-0.11479801,0.036739968,0.19928652,-0.23815246,-0.044186573,0.19295117,-0.00944218,0.014454776,-0.15391503,-0.06724207,0.17822573,-0.09687406,0.2080434,0.19233032,0.07050895,-0.13120216,0.033224273,-0.12270918,0.015946126,-0.013738105,-0.23462296,0.17919786,-0.25813934,0.019443763,-0.05335599,-0.08326222,0.03808622,0.051983535,0.23717892,-0.14202906,0.112669885,0.040853262,-0.015259929,0.23659411,0.20830041,0.085283995,-0.06673132,0.1487933,-0.26405743,-0.23074143,-0.013340202,0.0025536546,-0.2767514,0.16419367,-0.28799924,-0.2653173,0.0034888473,-0.15638596,0.1977126,-0.23261459,-0.004662986,-0.2102651,0.36461005,0.2824302,0.040124964,-0.17101811,-0.10430649,-0.22187856,-0.008469813,-0.0977819,-0.17763196,0.06350711,0.024815686,-0.12576501,0.049435496,0.1243851,0.39036754,0.4463271,0.044160403,0.09026624,0.007125426,-0.045895338,0.1997123,-0.3089251,-0.13026975,0.25543615,0.022620449,-0.15774906,0.05887518,-0.20998655,-0.0741789,-0.017869145,0.2251211,-0.2576787,-0.036919147,-0.04880814,-0.0053507388,-0.07651867,0.18897036,0.2670898,-0.26155892,0.24934256,0.07882528,0.025256664,0.35026446,-0.2322748,-0.11985524,-0.059435174,-0.13208094,-0.029125122,0.1352735,-0.33935562,-0.20364168,0.011690637,-0.22272259,-0.28821924,-0.15052882,0.06320244,0.12582661,-0.15447816,0.10760895,-0.030653954,0.23954529,0.16434847,0.27545545,-0.019772617,0.1578355,0.48016837,-0.34118187,0.45723313,-0.0437804,0.1509231,0.14119607,-0.45711538,-0.10432428,0.30726087,0.03343436,-0.2585548,0.09970859,0.29358158,-0.32829547,0.24346057,-0.051025275,-0.0006524579,0.11715725,-0.041348264,-0.264402,-0.14869955,-0.05519475,0.34356153,-0.19927391,0.08450073,-0.10304613,-0.005215647,0.11528154,-0.36679795,0.09649944,-0.010712326,-0.11273976,0.118250795,-0.08288527,-0.12626268,-0.14724684,-0.24899644,-0.122077614,0.16712284,-0.093269706,-0.25903723,-0.08084773,-0.046524197,0.090152934,0.21567398,-0.12911022,0.26775825,-0.26936612,0.24361272,0.124759026,0.22491853,-0.08868678,0.16299537,0.19326365,0.06572303,-0.19584873,0.2207318,0.10345922,0.24571115,-0.0016511959,0.123972125,-0.24540861,-0.2593771,0.038028084,-0.16420898,-0.18731827,-0.28324828,-0.21793747,0.03481073,-0.018242806,-0.12806001,-0.13844582,0.095213294,0.12723741,0.08478602,-0.035601933,-0.12170091,0.19078995,-0.015034652,0.20606995,-0.1744561,-0.12623395,0.20978044,-0.08423818,-0.026749466,0.20949717,-0.13753466,0.1519792,-0.0697959,0.27480796,-0.20470628,0.16296077,-0.027495414,-0.11207944,-0.1913302,0.2391714,-0.010745056,0.2556633,-0.2765789,0.4691184,0.34628806,0.17881235,0.4011772,-0.19165964,0.13420506,0.2554454,-0.13718596,-0.38345003,0.014582758,0.07788391,0.07284502,0.17931053,-0.059526615,-0.16484225,-0.016998917,-0.20618427,0.07181027,-0.25693673,-0.055187386,-0.10170439,0.11637904,0.120334774,0.02972742,-0.35916516,0.13188316,0.33181056,-0.325101,0.16932304,-0.14896914,0.07019236,-0.17827432,-0.100501135,-0.38553962,0.33276474,-0.12708358,0.031605184,0.19257013,0.275973,-0.15703069,-0.017392516,0.032831155,-0.28492853,-0.0028041005,0.28389844,0.21432135,0.16410576,-0.10152512,0.29177943,-0.08284743,0.25586396,0.11384264,-0.17657354,0.40425506,-0.3412617,-0.17933369,0.18155295,-0.41924927,-0.091579266,-0.0053495015,-0.17335457,-0.04892538,-0.22769,-0.22753055,-0.04748706,-0.20979366,-0.23685852,0.14976422,-0.04443337,0.018975515,-0.027532637,-0.06729464,-0.060405374,-0.07816132,-0.2518691,-0.12862718,0.30123985,-0.013312937,0.10504829,0.040413197,-0.037759643,0.038872957,0.15657173,-0.24016997,0.24440666,-0.16762543,0.0827666,-0.13950573,0.25416926,0.11248899,0.16200033,-0.32033876,0.14065763,-0.16340642,-0.16762944,-0.13908814,0.25204667,0.12758455,0.11984406,0.086338595,0.106971666,-0.038886733,0.18445763,0.39564687,-0.1366669,0.017979192,-0.13693179,0.046887144,-0.2690945,-0.08585882,-0.27060357,-0.3041654,0.18393302,-0.10702013,-0.310521,0.25594428,-0.045579795,0.32869694,0.0022663772,0.2772996,0.08154619,-0.2092635,-0.168965,0.13232128,-0.89691544,0.92798156,1.0706143,-0.23593628,0.8112181,-0.51999855,0.11643565,-0.13104008,-0.61114395,-0.3876149,0.9110916,-0.085378714,-0.949205,-0.17520213,0.23904595,-1.0035269,-0.23897652,0.2734359,-0.55421555,-0.041405812,0.09409261,-0.16383457,0.2718616,0.6430289,0.88819367
-0.05555609,0.07181579,0.108654216,-0.0746364,0.04884395,-0.095485896,-0.050096978,0.0,-0.071611255,-0.101695895,0.061704703,-0.041992854,-0.025189586,0.00919037,-0.014080428,-0.095473245,0.0,-0.041737594,0.021501878,0.0,0.0027012832,0.0,-0.0039443173,0.051201034,0.044615705
-0.0647076,0.38183385,-0.11831526,-0.2359963,0.01713441,-0.20277995,-0.08046264,0.29451463,0.2517468,-0.25909433,-0.021492403,0.19813259,0.024434522,0.03425478,-0.045735627,0.1272231,0.29891816,0.37105635,0.0019915518,0.015704181,0.036738317,-0.12677918,-0.2785297,-0.2608043,-0.4123698,-0.13124086,0.39634714,-0.18221785,0.36608782,0.22071125,-0.17895566,-0.13520314,0.09300932,-0.18457037,-0.105109476,-0.30987117,-0.44082156,-0.1657839,-0.17836311,-0.45853344,-0.10634744,-0.16882344,0.07023713,0.12382588,-0.36413845,-0.39089411,-0.025139742,-0.31794667,-0.07839027,-0.22197114
0.05222354,-0.05222354
